3.310967109296929933e-05,-2.458730842925962545e-04,-2.087350213841058166e-04,1.301197781123987788e-04,4.431116117899947833e-05,8.627965643895171746e-05,-8.499738028747728924e-05,-4.047058037911102586e-05,-5.668930746157555992e-05,-2.173321139750758902e-05,-1.440904530923485466e-05,1.139131121511421924e-04,-2.834653440306698417e-05,-7.825428944960706413e-05,8.553942215503664481e-05,5.714893665343624484e-05,-8.808655478787041188e-05,1.684984878139693387e-04,2.015415828718213520e-04,-1.028396276095806615e-04,1.715510350187027114e-04,9.312672638091133820e-06,-1.917172068617708033e-06,2.098442808684162716e-04,6.642649528272870634e-06,9.270941912249426164e-05,1.368463260455593771e-04,4.114294845835994238e-04,3.292189665973047920e-04,-1.216873479448116641e-04,2.721670558290511987e-05,2.000856757440071026e-04,-1.179536096977270321e-05,-5.237883781464662581e-06,-3.958173983969638242e-05,-4.372506299338994933e-05,-2.688385322271045412e-04,6.633094832676218039e-05,2.180000130699025345e-05,5.108434775267451034e-05,7.891472868295563680e-06,5.238520297132997036e-05,2.567975314072756744e-05,5.798519095238330133e-05,2.849832283266867596e-06,-8.379819524372997627e-06,-1.881588588489485126e-04,1.014439163508183293e-04,-3.080664855067915619e-06,-1.056754046630284941e-07
