9.209141502225929565e-06,1.252499072569863242e-05,-7.946690106150198401e-06,-4.847097879019184629e-06,-1.478892342925627125e-06,6.967768227270326816e-06,1.012344009355324210e-05,-4.439230396135701806e-06,7.755063934689591880e-06,5.603896150849958225e-07,-5.159289336499638641e-06,-1.197836048672112327e-07,-8.363955969775822605e-06,-7.164515931074370397e-06,6.116726372991231600e-06,1.786024153312355660e-06,1.743201386338472588e-05,3.827616442622392745e-06,1.150653488675422735e-05,1.857438727579564271e-05,1.490626501702452960e-05,5.303648944963792219e-06,1.257040202782037153e-05,-4.868066143905523675e-06,-5.272314273073723110e-06,2.352193316652349207e-05,-5.449231700602053725e-06,-7.407564688681746158e-06,6.758263804602125801e-06,2.697113815582113027e-05,-2.049124751772966795e-05,9.624493310687958050e-06,1.502274200154653061e-05,8.181330989467118758e-06,3.213115931210232914e-07,1.248038684760519087e-05,2.594268960609652746e-05,9.990809920320662646e-06,1.190997735412700551e-06,-9.377706489549115522e-06,-5.769471498458027283e-06,1.740274366233858452e-06,-5.148797262017131415e-06,-1.317589895512055740e-06,1.298090994260535745e-06,2.986822571547213528e-06,1.784597415642631482e-06,1.860494059322959561e-05,-4.015640417022689268e-07,1.555038519413736131e-05
