7.330493336875061692e-05,-2.515640411760451775e-04,5.477867105036422519e-05,-2.906415948684867631e-05,2.033503656024175177e-04,9.970127252686435647e-05,2.521833132550124662e-06,-1.177933798093846286e-04,6.691301956959288210e-05,-8.203810102587602224e-05,1.640649176798616388e-05,-8.613111693153367558e-05,1.636609627838253971e-05,2.001633898118454556e-05,7.044991672247219866e-06,-1.884415328440406466e-05,-1.427310811987677339e-04,1.295602194683189248e-04,4.498208576706311300e-05,-1.471354224472874243e-05,-3.186196180595554325e-05,-7.699399149356017300e-05,-1.215607896398172303e-06,-2.810458520410970772e-04,-2.805823430273295550e-04,6.898975530774461174e-05,6.475425321667796930e-05,-8.535288014015146661e-05,3.442191545138566710e-04,-7.565121068125856961e-05,-3.075048781399057233e-05,-3.783879268194431824e-06,-8.798493032905874467e-06,-1.957908952531922924e-04,2.194020901952251791e-06,-7.730314677681597360e-07,1.566413435998952606e-04,1.666210457335278675e-06,-5.171062416864977384e-05,-7.691069199596666645e-05,-9.765353687119467173e-05,2.617063547359330764e-06,-1.267821279207629208e-05,3.555211607586043179e-04,4.613081740291340486e-04,1.259673138076822815e-04,1.117365870505983614e-04,7.433403358719896434e-07,2.545761213935424452e-05,-5.539162934563310130e-05
