2.744211073007610030e-04,-3.240739255206993310e-04,-2.629197613096308098e-04,-6.355743876790810815e-04,3.007115881361480743e-04,1.279014826895335057e-04,1.474804941985895885e-03,-3.769578270117882371e-05,4.523664599951317733e-04,1.258800225669149840e-03,-6.207238882604254994e-04,-2.266022096342979679e-04,9.283510552409426821e-04,1.844908130099944194e-03,7.930718195615055037e-05,7.336067034883482323e-04,1.331198543837761082e-03,1.592272607982875461e-03,8.409597549772667487e-04,1.315107542987281044e-03,4.986030811295316103e-04,-7.179482292765908139e-04,-9.466200351232711670e-04,5.325055649266110906e-05,-1.035087946455441220e-03
-9.464443673337848487e-03,-1.242503982033750683e-02,9.208834654513499765e-03,7.005203727336792134e-03,9.859797898621422071e-03,-8.220473821869673722e-03,1.083777635731637476e-02,-1.097186806936539458e-02,-9.871978905673406066e-03,-6.339320662510443925e-03,1.396358853549099256e-02,-1.038378353752919189e-02,-1.323069636679634169e-02,6.733949642946910480e-03,-1.272697201464795778e-02,-1.202926511091385701e-02,1.073912133680332039e-02,8.892988498101401379e-03,7.932548490143423447e-03,-7.757671643425542718e-03,-1.330822289158472768e-02,1.123179524445451147e-02,2.478510151379970366e-03,7.879113661148486741e-03,1.070572666134560202e-02
3.072435337520506866e-03,4.926347425074015240e-03,-2.847443183329051008e-03,-2.107761296848584438e-03,-3.460153017333141966e-03,3.200028135024998287e-03,-4.333804315004201671e-03,2.380553401537397612e-03,2.802258311739592219e-03,3.073991552044624299e-03,-1.735512536791976573e-03,4.103423968867644239e-03,3.476046163150430662e-03,-1.486420704832848785e-03,3.926554949524907120e-03,4.017740753418331742e-03,-3.618330767512696090e-03,-2.259308944469781266e-03,-2.890385838317678386e-03,1.890890606932572014e-03,3.931298659952508177e-03,-3.368612017429024365e-03,-1.187352415235764147e-04,-2.077692201699146875e-03,-3.287209488161844419e-03
-3.260871190250667364e-04,9.913875613544967543e-05,6.233161697059947607e-04,1.982867932476737021e-04,1.183290687169806770e-03,-7.412775804410540919e-04,-3.698025851110765274e-04,-4.606623008195710506e-04,6.336719125158275876e-04,3.653506086716533526e-04,-9.023102884212637863e-04,5.580853622104006099e-04,-4.733962290172838211e-04,2.865971839645870337e-04,-3.871674325400906061e-04,-1.006881790873180148e-03,-5.686439656740840693e-04,-1.728529739693393909e-03,-3.566325614949376324e-04,9.958664215328223018e-04,8.638105595492016626e-05,7.846589738885609766e-04,1.584792984844755458e-03,-3.802436127155346657e-04,-7.777361118908827442e-04
1.321047912795504219e-03,2.832446768331043935e-03,-6.266708981619390981e-04,-2.835376998266151078e-04,-1.715606402651202907e-03,2.013593605254955250e-03,-2.066243788445224199e-03,3.389734780532373259e-03,1.999201937996781305e-03,1.231369476423325440e-03,-3.611521016446782653e-03,2.166223256161624137e-03,2.426969215285170074e-03,-9.713335502389999852e-04,1.788747120681463774e-03,1.744460050163258290e-03,-2.247399225778828977e-03,-6.447952413020469021e-04,-1.129985402216520307e-03,2.679789311149943613e-03,3.203432101161244727e-03,-3.102527648970323550e-03,4.819806724588847628e-04,-1.114388208400149145e-03,-2.028080403751052804e-03
-4.855623147407326680e-03,-5.346272975774253068e-03,3.718586101308963242e-03,4.323731346193526682e-04,3.543876391124156124e-03,-3.103709346969871739e-03,3.516095038649857518e-03,-2.463385123265230715e-03,-2.003142367976949983e-03,-2.620343842009202184e-03,3.971922562099786114e-03,-2.463007681374642169e-03,-3.509037201258519405e-03,1.037000783475420336e-03,-3.341544026001747308e-03,-3.174678783905565682e-03,3.224193488201569213e-03,2.642795842573466593e-03,2.754018314660856403e-03,-3.739782192309075871e-03,-3.968146633617663198e-03,3.275103575528941040e-03,-7.338011088284325566e-04,2.846253959990782591e-03,2.589337430645450439e-03
-6.330486140749651269e-03,-6.479213305640559029e-03,4.243779654825498120e-03,3.855890103049690581e-03,5.608569038590144849e-03,-4.965649274487691188e-03,7.163069673364822441e-03,-6.043115528340453797e-03,-6.405174196096676681e-03,-4.754598597728889459e-03,7.883007803227178381e-03,-5.843410954097919864e-03,-7.955629055396130911e-03,6.424137207467209981e-03,-6.705709335224689822e-03,-6.650064255493137733e-03,5.845734829319927835e-03,4.376009481151691555e-03,5.166591693617712637e-03,-4.452389727383438377e-03,-9.547805630199026131e-03,7.454381798929190540e-03,2.223776838841510801e-03,3.927789753186682400e-03,5.357704574109287479e-03
-2.626879303886653960e-05,-1.877671444193007490e-03,-8.197728323324417633e-04,6.702666371787069149e-04,7.608186297549707384e-04,9.460464731638237163e-05,-4.153347737393757433e-04,8.190858777326885014e-04,-9.404073783949220416e-04,1.083840080726966104e-03,-2.689153488973835280e-04,8.778523454803439149e-04,1.491321879103602076e-03,-9.945679257037864322e-04,7.290462833996029512e-05,2.992235602605623269e-04,8.455272378879066092e-05,4.948640795372947435e-04,-6.328899529088966242e-04,-1.767290534751888036e-04,5.669665852662983353e-04,-6.082626968439619128e-04,-6.412500285576835631e-04,-1.637727825278523480e-04,-4.123468592673924403e-04
-4.047138065404536425e-03,-5.707332470619557938e-03,1.682156938232840567e-03,3.698399008621490024e-03,3.852495139280345988e-03,-4.226708927144618051e-03,3.592901846960864197e-03,-3.861291126434654181e-03,-3.463312854991501717e-03,-1.733334084538111323e-03,2.349435382216759089e-03,-2.333123011959424217e-03,-4.091650989188383609e-03,2.788154783037571135e-03,-3.679317092774387222e-03,-4.255976340885004976e-03,4.119586892560265015e-03,3.246558230164423194e-03,4.345340129265215338e-03,-2.968462703477885156e-03,-3.832313819633303455e-03,2.584076297296948165e-03,3.056999926962324522e-03,2.922620805711348673e-03,3.766496878672748530e-03
4.479157095948022201e-03,5.345564120960654385e-03,-3.680138772292573975e-03,-3.157620854809548103e-03,-3.971703888698926987e-03,3.725676249175077521e-03,-5.453661297385210480e-03,3.679808479082366350e-03,4.005552390226073574e-03,2.961680822289689853e-03,-6.013923749845174679e-03,4.269188474359029636e-03,5.194086987637800204e-03,-4.231504510765321178e-03,4.404990850037053887e-03,6.219996188618963535e-03,-4.232380824462160865e-03,-2.969654945568707058e-03,-3.649183802921444897e-03,3.448783499669301998e-03,4.611295608346006880e-03,-4.589248345100766305e-03,-6.695483118566959106e-04,-3.165540539541311475e-03,-3.437480165994270115e-03
4.057525778720006207e-03,4.853350789266359065e-03,-4.055547608357957384e-03,-3.887268192811691239e-03,-4.099020097801667900e-03,4.403598796403719769e-03,-4.256008019824407233e-03,3.950328161590925015e-03,3.218365714302993431e-03,1.576551459590422397e-03,-5.563879063940221914e-03,5.409636621466503911e-03,4.521424299135749607e-03,-2.816136221845317623e-03,4.424867482289622164e-03,4.077914633689332102e-03,-4.412544113718641289e-03,-3.434984215241420908e-03,-3.428405491478696537e-03,4.137597600785480195e-03,5.208792167767265641e-03,-5.513270355222268937e-03,3.739698258660861135e-04,-4.611137846666916659e-03,-5.537588969698550162e-03
-2.256593430453755148e-04,2.197755719640772721e-04,-4.256586533384256604e-04,-1.571374317311433045e-04,6.475626773256739190e-04,-7.542729033432997443e-04,4.448761066947696922e-04,1.211262119370579452e-03,-6.019615812929713641e-04,-2.332855929849409220e-04,1.601512197193001325e-03,-6.549603987682193497e-05,3.813536372630832515e-04,7.919056956892900042e-05,-3.719300879334048863e-04,3.667181639801883500e-04,2.385848736710805137e-04,-9.657335976630904368e-04,-2.289113862916751044e-05,7.554310755169247834e-05,1.906603047888613634e-03,-9.743945315274839822e-05,-1.161529486491996764e-03,-8.634709940245033051e-04,-1.267890271242932444e-03
8.457628150798366870e-03,1.089045006793778851e-02,-7.570293155036495435e-03,-4.962931254024521323e-03,-9.539699877990638968e-03,7.478494233900111546e-03,-9.508058121766952211e-03,9.103961548342769453e-03,7.594733223114202673e-03,4.976473585498171134e-03,-1.096503056644417343e-02,7.806288562637938612e-03,9.979391644903112465e-03,-6.753021869172317129e-03,1.074583650945970005e-02,8.762675008591179135e-03,-1.053276014896156743e-02,-6.235316556557729019e-03,-6.932748830903817834e-03,6.865834534708132285e-03,1.058306576064580763e-02,-8.392012674718314982e-03,-2.898957135358173204e-03,-6.725246346358581401e-03,-9.268794060592493167e-03
-1.040989454888384966e-03,-2.786430855280148684e-04,-1.311228371594770582e-03,-6.373893709664699234e-04,2.208950636858616947e-03,6.000884382346931408e-04,1.532229420093484708e-03,-2.131938375482979233e-03,3.136284853812609948e-04,3.413823402277109593e-04,-6.826593876107749223e-04,-1.925042259729499048e-04,1.536999619569708465e-04,1.286886013080374347e-03,-9.476446289918874196e-04,1.005305191510590113e-03,5.209519565365829802e-04,9.838177690527328493e-04,2.130269351616630353e-04,-1.194609383506349412e-03,-5.515477698648479747e-04,-5.187848248561559251e-04,-1.353591810801971478e-03,-4.630184933464832854e-04,-3.435943426542341600e-04
3.022382654530037915e-03,2.686562138895687464e-03,-8.576049000175368269e-04,-7.700111918421860416e-04,-1.454376961079291300e-03,1.485197468150845947e-03,-3.255160139003988873e-03,2.940773607437403587e-03,2.589843487849726421e-03,1.858941761484964950e-03,-2.041509251920542965e-03,2.135127330319604253e-03,1.924671625385865467e-03,-1.345975549694039758e-03,1.983790536859598476e-03,2.133997343737119388e-03,-1.852971362422912559e-03,-6.478683298378983251e-04,-6.084901445472619061e-04,2.364746539288358797e-03,4.117770046419818274e-03,-2.057928155282820123e-03,-2.057630200242253351e-04,-1.562551554956007494e-03,-1.644382371666575342e-03
1.246438889334572885e-03,-1.430219029800987188e-04,-4.543354935002888039e-04,-1.416564638886945882e-04,-3.505332252054996342e-04,-8.474003249720214043e-04,2.106824372394209524e-04,1.116908562075490325e-03,-3.428767146535468863e-04,6.010999649427982037e-04,-9.615709211670399152e-04,-6.092006122836672978e-04,1.029337219341760427e-03,1.474644386721020168e-04,1.494788120034973430e-03,-8.403107955066832144e-05,1.731128711401078092e-04,1.181446846806034857e-03,-5.231150607282498977e-04,3.598822193642974595e-04,-6.003463866685553301e-04,-5.308820411167833623e-04,5.406448419172867103e-04,1.136933684269182026e-03,3.270387831822502080e-04
-8.542614630775166931e-03,-1.075201596007896443e-02,5.999416140391183525e-03,7.024407607004281781e-03,7.659197477139089924e-03,-6.612211112076311556e-03,9.533158883593451788e-03,-7.992867310890548402e-03,-8.319675557324776941e-03,-5.158049365805661424e-03,9.276252660221350269e-03,-7.711320850008490484e-03,-9.738612927829537816e-03,5.587980304507579078e-03,-9.702928810558503550e-03,-8.377747598522368444e-03,8.985818589239861348e-03,6.341391448437485104e-03,6.278482188985350966e-03,-7.145949382724256331e-03,-1.161564940508047483e-02,8.577989544851333595e-03,1.305486582544819691e-03,4.999695236180570941e-03,7.994717520659187782e-03
4.612482897110104299e-04,1.137494052242846295e-03,-1.369787736657710657e-03,1.450029836328556190e-04,-2.770722070037117584e-04,-9.717820181639412989e-04,6.481600399744655251e-04,1.647896944107759892e-03,1.239483568250487292e-04,-6.723621744998230362e-04,-1.145496466306626313e-03,7.384237704668372357e-04,5.557751169975245131e-04,1.607104971620301401e-03,8.698053147008024972e-04,-9.466722804431993354e-04,9.627001534487850999e-05,-1.023478974462674156e-03,5.492324247226152345e-04,2.473261558769748389e-03,-4.533461553148265171e-04,-2.043741080438034232e-03,1.048946710919287451e-03,7.322253615094758685e-04,-1.232395077075688124e-03
-5.276026854283549783e-03,-6.509449947908171712e-03,6.062221877486390423e-03,5.432948054496541772e-03,6.886000586158461806e-03,-4.731913357671656099e-03,6.998162732628832212e-03,-4.446382023562146617e-03,-4.291549490235211338e-03,-2.833405657371558441e-03,5.734511293399809952e-03,-6.246007450061775643e-03,-7.042006008688227181e-03,4.423693963469764283e-03,-5.004228937737592760e-03,-6.155702046380120106e-03,4.859887580862433908e-03,4.076187390273631334e-03,4.765496614259122875e-03,-4.975153018138219613e-03,-6.332036587442107199e-03,4.838439489024794551e-03,-1.706394288830345729e-04,3.975740270315802904e-03,4.565033669346851841e-03
-9.642698332445407902e-03,-1.303460445306217803e-02,1.014553738475236153e-02,5.671302645402062984e-03,1.025179264974324447e-02,-9.918202767425490438e-03,1.150172133025458704e-02,-1.012981387905091679e-02,-1.046301537481290379e-02,-7.793699008923959080e-03,1.307779435144879564e-02,-1.105831049240079376e-02,-1.257694930882615435e-02,7.954210251052489314e-03,-1.156785922002701548e-02,-1.084529535585310005e-02,9.733019523480575599e-03,7.664857224491945613e-03,7.184691189026846253e-03,-9.443519802554345074e-03,-1.456888501459946243e-02,1.193156643715189910e-02,4.098481273127155614e-03,6.681343215872969851e-03,1.224745703375435153e-02
-7.025855658365252193e-03,-1.035887863570358371e-02,4.044226863729627475e-03,5.337457762048613760e-03,7.154194733798129036e-03,-4.009930192769615466e-03,7.621231762487576562e-03,-7.825288121282700585e-03,-6.414517762364250510e-03,-3.296105124252488201e-03,7.514277300897867148e-03,-6.578786116872045557e-03,-7.835704730162023485e-03,4.857078498687211233e-03,-8.485765429217103847e-03,-6.242546563433188853e-03,7.273036952207359920e-03,3.536735056321009974e-03,5.176755351596091549e-03,-5.404970799033295518e-03,-6.936675042045749480e-03,7.198363558571310890e-03,1.849571524059437930e-03,4.714313058537150311e-03,8.365589099616693031e-03
-6.528444014715468428e-04,-2.609257431325051006e-03,1.366164846351322799e-03,2.664756277882262018e-04,3.206848004236305307e-03,-2.274603269210943943e-03,2.625329797242131284e-03,-1.173729461382118150e-03,-2.320568680237539757e-03,-5.593054291571984520e-04,3.675816504290057782e-03,-2.455344771095355465e-03,-1.255704756312347233e-03,2.163273090324574380e-04,-3.156712123486370754e-03,-2.371595380669706040e-03,2.080396177793471333e-03,-6.612586778818037943e-05,3.697203967769611445e-04,-4.311970549858203930e-04,-3.378571639436332361e-03,1.727912776567332859e-03,2.941845569579924356e-04,2.590084490222025609e-03,1.505468093174221634e-03
-7.419887618645097833e-03,-7.886883840962380376e-03,4.316775725248293838e-03,5.032175279045731676e-03,6.743678673367415992e-03,-5.533616646296179650e-03,7.669788348600285223e-03,-5.829241218858112819e-03,-5.181734219163917389e-03,-5.873744462807467016e-03,6.510724939838332011e-03,-6.100822635627854706e-03,-7.835180835620236817e-03,5.107378427326106016e-03,-8.587648555201951930e-03,-7.444291030163789451e-03,6.977666298728526714e-03,5.385222701977381878e-03,4.438643914355054274e-03,-3.781940246134976244e-03,-8.609293257043140746e-03,6.174428017747964591e-03,1.697667810110661422e-03,3.830732356544811791e-03,6.924645635859835377e-03
2.483030403746997860e-03,1.426460870355327360e-03,-1.678397535862012624e-03,-2.580496301442265945e-03,-2.490893654306210441e-03,2.284178867294085497e-03,-2.283146531972830590e-03,2.808836687732078636e-03,2.180684877731029359e-03,2.303037369113669717e-03,-2.202895344856130051e-03,1.949208198821016091e-03,3.006903505893567061e-03,-1.182169773764795350e-03,2.483854524806359144e-03,2.683740248597915688e-03,-2.221542125350623505e-03,-2.343361576474365174e-03,-1.448025926713895645e-03,3.056513125072761895e-03,2.242549502802258093e-03,-2.933903295654704570e-03,3.255931019860314342e-04,-2.527127901846680340e-03,-3.912400354362755191e-03
8.598303594570122152e-03,9.548339023496820246e-03,-6.742394821457504961e-03,-4.334674590061329824e-03,-8.267614721195660002e-03,6.189711498177833705e-03,-7.313997775059937270e-03,6.720957603048432864e-03,7.473525545128143974e-03,5.524303989116620579e-03,-7.655133318295996060e-03,6.071798611037699384e-03,8.770140437960429261e-03,-6.290915869613245351e-03,9.535988863803556911e-03,8.199138505448986397e-03,-7.624353129352518660e-03,-7.452634820303775942e-03,-5.510614786753066825e-03,5.761462383374004598e-03,1.031834945621434331e-02,-8.257893730870647514e-03,-2.969748432576054756e-03,-7.091611270039021794e-03,-7.651805850928081708e-03
-1.019729056285338317e-02,-1.432211631550962642e-02,9.908722678966676300e-03,6.109570851190133066e-03,1.084797864973174528e-02,-8.120917699594139630e-03,1.089597422133540584e-02,-1.143800831229268081e-02,-9.350624272296633246e-03,-7.536096267027601360e-03,1.289743709341216807e-02,-9.981077964548220466e-03,-1.154681436599466586e-02,1.044711593254656588e-02,-1.359418001444485762e-02,-1.081329554349108255e-02,1.157061095654598852e-02,8.438336617122024763e-03,7.078551371984628630e-03,-8.587299239324799188e-03,-1.385914250948251138e-02,1.060037799434779618e-02,2.881873854804718402e-03,8.467369804213168913e-03,1.040333028005780043e-02
9.156687292677704280e-04,2.302231758013987585e-03,-2.009945807384912116e-05,-1.159783980506248844e-03,-3.045107390686894100e-04,2.019768424665367452e-03,-3.550933677457907521e-03,2.417292333382474109e-03,2.295917493134042031e-03,7.056902228703061143e-04,-2.375913873118414704e-03,5.836788402553140217e-04,2.067560261807892610e-03,-5.778237718906657381e-04,3.091153566555593585e-04,1.374152659540126518e-03,-1.202832726407271607e-03,-2.375588783092737449e-03,-4.575167203918890880e-04,5.530372384954101859e-05,1.569290979105609834e-03,-1.579802418961744363e-03,1.094101726441899574e-04,-1.497281525826080857e-03,-8.272131124668192061e-04
1.154549016621183319e-03,3.001002248975153872e-03,-1.787257426100377850e-03,-2.021402860737193594e-03,-2.338683873433537990e-03,2.865618463319812969e-03,-2.570010320036589420e-03,1.324505798914406762e-03,1.661909987685309450e-03,1.410584183859387017e-03,-2.601024575889961544e-03,2.786568376617269390e-04,1.934595407925680322e-03,-2.420719021986980808e-03,2.674917280735809345e-03,1.336684842192948936e-03,-7.892634279246964462e-04,-1.157897149727952005e-03,-1.900626259464994507e-03,1.849999497945528301e-03,1.225645002242415488e-03,-2.245525240496563154e-03,-1.310444920431429877e-03,-2.530232895672905515e-03,-1.529515326463997500e-03
-2.901496483608898523e-03,-3.704662037664618879e-03,2.917710482921534801e-03,1.217802474448041001e-03,1.508068494251863390e-03,-2.615273362350903612e-03,1.716650026226899028e-03,-2.738312406962768297e-03,-2.383016233344854243e-03,-1.224823898680195465e-03,3.375212704001631127e-03,-2.599490476826365158e-03,-7.645928712206726723e-04,-2.146298910851434725e-05,-2.072053831132149564e-03,-3.698898021778002521e-03,3.017102491744192913e-03,1.715457249043699168e-03,1.523219757693404031e-03,-2.148020706324612998e-03,-3.725740528879847423e-03,1.824399952144656507e-03,1.794225093872121000e-03,7.988317465949864183e-04,3.181213354981559781e-03
-1.982426958140417333e-02,-2.443793329662670086e-02,1.659273749072674373e-02,1.174882969008075873e-02,1.800924044224705076e-02,-1.504459598544876688e-02,1.884467203774302727e-02,-1.912070250608021577e-02,-1.625725081930092311e-02,-1.110576956180670677e-02,2.111858658588695176e-02,-1.717765715989041930e-02,-2.055891534319160413e-02,1.274644671812505230e-02,-2.237200843815610046e-02,-2.038372773399102153e-02,1.959677338830359897e-02,1.484237993638611378e-02,1.385643218197012486e-02,-1.459207675815041814e-02,-2.420163824053447182e-02,1.851079353268170538e-02,5.047759507210280473e-03,1.397841473776130841e-02,1.995135905775758181e-02
8.242628816256244995e-03,1.213188280261139930e-02,-6.970506733810312439e-03,-5.664584638157799459e-03,-8.369826470514457606e-03,7.178043904755085358e-03,-8.791774883879190788e-03,9.352667978218161260e-03,8.530097594163588495e-03,5.938758155738385440e-03,-9.828732184610482897e-03,9.134830491778777456e-03,1.006652992246900510e-02,-6.077577241504667632e-03,1.073052337478990099e-02,8.920494203931509866e-03,-7.523634889100551393e-03,-7.046655418070618682e-03,-5.848975677318128848e-03,6.691572374026798047e-03,1.194387318931836722e-02,-8.985090355880293381e-03,-2.064489416609280141e-03,-4.423144767117644961e-03,-9.904824887709710868e-03
-5.759843109271749369e-03,-9.303754028592627415e-03,4.055689092573989615e-03,2.388783461314184994e-03,8.051106465833110515e-03,-5.426048305509964705e-03,6.016356208238744438e-03,-6.110023407010217213e-03,-5.664936183183694532e-03,-2.953092488427886721e-03,5.940996896940846719e-03,-5.698294572072210365e-03,-5.977399945477791972e-03,5.954214137345735687e-03,-7.191920563214068349e-03,-5.528020183546190208e-03,6.537033499105448196e-03,5.249103201586054028e-03,5.670306092861649751e-03,-4.707703095521821070e-03,-8.737524998755670166e-03,6.562187391837581187e-03,2.699576212991756582e-03,6.956760044444872462e-03,6.660505456371683224e-03
-1.102334275569796969e-02,-1.347210664054393665e-02,8.013612960098453683e-03,7.500203633534721637e-03,1.107922542397412127e-02,-7.480976435041987102e-03,1.114980102794738831e-02,-1.107813524290586493e-02,-9.692184485702883684e-03,-7.952140750852100884e-03,1.212319905850379499e-02,-9.553167597883627585e-03,-1.301961725478003977e-02,7.648641853409181290e-03,-1.155073573245385746e-02,-1.141592842427394637e-02,1.130642851909231805e-02,9.168614852754658831e-03,7.487028116838511695e-03,-8.772134408013042631e-03,-1.300776485652557594e-02,1.208352162219925030e-02,1.081186530433155121e-03,7.725324607060774472e-03,1.160099339668935019e-02
-5.905034028994624387e-03,-5.442659805711271871e-03,4.549108819142497380e-03,1.512676624743966971e-03,4.870127500221592583e-03,-3.329309921102005347e-03,6.417525824304247568e-03,-4.627730760499857571e-03,-3.878922843618884744e-03,-2.559842143598411914e-03,5.609926347432792927e-03,-4.909612750194349180e-03,-5.108751057362682230e-03,2.724662661648885511e-03,-5.065163600941495481e-03,-5.188422806185115886e-03,5.199783542151119493e-03,4.315669246438278914e-03,4.514203072767579775e-03,-3.742178544071968118e-03,-7.128585130032652831e-03,4.794937602586831112e-03,2.863519148338755475e-03,3.175882852695118171e-03,3.400037364896073711e-03
-1.164173810397958059e-03,-7.245946502309763299e-04,4.661954820187851609e-04,7.681089143823905362e-04,-9.381147241286487371e-04,5.062399352481518344e-04,-1.652599345466036079e-04,3.205053015478329364e-04,-5.181525804842582314e-04,-9.255930280528703018e-04,3.818736762623221501e-04,1.384559312829123875e-04,6.688597239947666456e-04,-3.831705155960432965e-04,9.671824694919597650e-04,8.935764453910849999e-04,-3.138039463228859695e-04,-6.753522600052367904e-04,6.739297287857442956e-04,3.969296595608167908e-04,6.610144903139549076e-05,-8.933336924710191720e-04,-4.154038265041125528e-04,7.101152593571694082e-04,3.717099740190802498e-04
-7.379635607291514660e-03,-9.166103585643431417e-03,6.348219286523796440e-03,4.832347784855342034e-03,6.963294701755155802e-03,-5.605514299012554977e-03,6.282135525984949495e-03,-7.247926921046217615e-03,-5.817030029364337294e-03,-4.860523060011907176e-03,7.354647739266618155e-03,-5.309894712567625463e-03,-6.820427581223446542e-03,5.338887901991484601e-03,-7.222444335915324809e-03,-6.022164596093665737e-03,6.053146606843647082e-03,5.277555171847812636e-03,4.374531043842733342e-03,-4.539245583077949550e-03,-7.351785359237196851e-03,4.943836586964622803e-03,-1.462698509539046665e-06,5.035490440835390866e-03,5.869526470298649760e-03
-1.353732468970495276e-02,-1.689381094699602542e-02,1.062308109469349560e-02,9.370427953697486184e-03,1.473688871058895927e-02,-1.343131285169116979e-02,1.461060647925510429e-02,-1.479279166431664121e-02,-1.383540699743964278e-02,-1.048654002331416389e-02,1.734387787386156704e-02,-1.299885526567269405e-02,-1.622535918750090886e-02,1.025610783151173662e-02,-1.571819942780700377e-02,-1.474695955968652675e-02,1.185568447024601402e-02,1.075392186476743263e-02,1.034363578687203314e-02,-1.193877149455748778e-02,-1.840121199646443592e-02,1.430398565472087991e-02,3.655970480606999216e-03,1.125762110727930240e-02,1.556464320064821980e-02
-5.057540085739771311e-03,-6.535693434034653242e-03,4.892784656716505677e-03,2.827038168089711888e-03,5.546366392860829428e-03,-4.827443593609214573e-03,6.106135622653430066e-03,-5.090315446715099577e-03,-5.059164092478452522e-03,-4.069129901694831970e-03,5.601876676488478507e-03,-5.263034271912275450e-03,-5.674440633046283142e-03,3.887395791488216634e-03,-4.795849615969002833e-03,-3.683198649021105029e-03,5.035134296506810561e-03,2.785002220846389751e-03,3.339633811737608825e-03,-4.359290413637357912e-03,-5.528224933135116037e-03,4.429104997520238833e-03,2.145733226455940300e-03,3.474094745696426536e-03,4.918162651889475788e-03
1.389069809818040634e-04,1.128767724780793273e-04,6.625439978207368734e-04,-2.337263720713165811e-03,1.081050404564122368e-04,-9.745257411314404636e-04,-1.435217425715285423e-04,3.498870046132718475e-04,-5.259616078649075938e-05,-3.266283895698905379e-04,5.223325192096624865e-04,-7.382839410664614709e-04,-5.724059906781952866e-05,4.826601181204476037e-04,6.626195509916324362e-06,1.966713233354314150e-04,-1.221266129150450248e-03,-2.642679856101253031e-04,4.571069335994210623e-04,8.952354499923240866e-04,-5.445714324178815456e-04,-2.345486887085685053e-04,-7.324291480747794790e-04,2.167218677168363862e-04,-8.754394456251177441e-04
5.457703266900676420e-03,6.328909426607487801e-03,-4.094044883643221770e-03,-4.650647053706339663e-03,-4.875807975713853694e-03,3.302663173128621201e-03,-4.571183746605334344e-03,5.434509029781591817e-03,5.379531486720955970e-03,3.318369065260253631e-03,-6.192955511838780548e-03,4.795937732142058034e-03,6.410165317290850498e-03,-2.921515384144662657e-03,5.673446774590273391e-03,5.960266819730915613e-03,-5.284460920421917875e-03,-4.191060481746198413e-03,-4.684665052370613238e-03,4.886709155021881114e-03,6.162380840213812876e-03,-5.155237533422236951e-03,-1.438581708855280654e-03,-3.789288843780233649e-03,-6.740777454685757675e-03
4.990558995436872661e-03,5.240260851616614091e-03,-4.539559867467446268e-03,-2.038489449495410177e-03,-5.109564346040412069e-03,3.181011065869008246e-03,-4.750599125948398727e-03,5.066028881558927617e-03,3.386046099198439588e-03,3.287118092650730301e-03,-5.995098337471921855e-03,3.876932606735896368e-03,4.586114649686663484e-03,-3.658960405039278323e-03,4.407072480959117744e-03,4.394378535843733100e-03,-3.311441111829467598e-03,-2.409251164070272400e-03,-2.804326176117585574e-03,2.652996800174950518e-03,6.432216647851476607e-03,-2.717675955923136780e-03,-3.376914715806720712e-04,-2.774923394613833683e-03,-2.547593339016886952e-03
2.072449077208216896e-03,-7.056208195781305242e-04,-5.868744238082683517e-04,1.428495216012717408e-05,3.089033029775626010e-04,-4.733388258857448437e-04,-1.268999586759506418e-04,8.036377871455239498e-04,-2.998366415033112400e-04,-4.901299922219952768e-04,-2.623236422851498318e-04,-1.417990253498919333e-04,3.129128353091431184e-05,-9.576772160584634238e-04,-3.754848076415440140e-04,7.392907600715035435e-04,-1.621681653366074819e-03,-5.588428299055935066e-04,-4.476104519616799196e-04,-1.472044940405039908e-03,-9.062694808012712122e-04,1.049108967535861961e-03,-2.721025744007337689e-04,-1.063814007619928509e-03,-1.333933446005928841e-03
-1.258581098018100083e-03,-2.171478391024304205e-03,1.070247939058359150e-03,1.181079682906273440e-03,2.570209216332588510e-03,-3.178861345079269252e-03,1.786540276244351052e-03,-3.066041511080010596e-03,-1.601230351256074068e-03,-2.223139650163482358e-03,2.028989278427598825e-03,-2.990245907732479343e-03,-3.108273980592228883e-03,7.573503624608354931e-04,-2.756441583467623274e-03,-2.478527121453072326e-03,2.815774596215107287e-03,1.909881672628977031e-03,1.940483164863898149e-03,-1.777532660539625020e-03,-3.322628618580890283e-03,2.430707807700848745e-03,7.504569692277238352e-04,8.415392047420470817e-04,3.743499514583388445e-03
-1.554279495734641045e-03,-2.810370851223179802e-04,1.429580798606326858e-03,-3.063273521819639674e-05,7.254889485798861250e-04,-9.912835831993523319e-06,1.378146007735854073e-03,-1.453963787896052611e-03,-4.973544866631867279e-04,-6.291610660328986916e-06,7.334187353821018966e-04,-9.622934338196024442e-04,-4.719348879343897773e-04,7.743895939869237764e-04,-1.854570402566295450e-03,3.863632300331547428e-05,8.637738302766456927e-04,1.157219023338327711e-03,1.025459264458403576e-03,-1.675636166079401033e-04,1.237647489142824908e-03,6.091797098832438251e-04,8.746233691192101777e-04,3.337887179445117938e-04,4.107911379124822471e-04
1.050662182013301083e-03,1.982412286735466770e-03,-1.357293158368004342e-03,-4.718998314501916445e-04,-6.745600452068013482e-04,4.507737815057897310e-04,-1.600772719628766605e-03,9.341672443827107528e-04,7.121048826849032216e-04,6.646485355045555175e-04,-9.812758657997901375e-04,2.283198116826884710e-03,2.350104245717331026e-03,-1.784581576189326431e-03,1.288596862170792150e-03,7.338010205944356249e-04,-2.609310244318516908e-03,-1.172921129916119475e-03,-4.403120547404943048e-04,1.530109161233930704e-03,4.480819600179543685e-03,-4.965494653277136364e-04,-5.551492481436350957e-04,-8.625676180083666602e-04,-1.081010310031752311e-03
3.694383612458523327e-04,9.065523607824028983e-04,-1.041097701624517542e-03,-1.407816360651416982e-04,-1.025395046610722352e-03,9.014407265482192542e-04,-4.361095484269727888e-04,-8.063580913394200703e-05,2.814107547805372290e-04,6.731486489101450596e-04,3.509794836440224700e-04,6.197517359274972012e-04,-9.774285416763778180e-04,2.344916314304098051e-04,-9.002355804710132593e-04,-1.188270075931338208e-03,3.360483487795919372e-04,1.742900187970988519e-03,4.276819867532876546e-04,-4.170010306371512506e-04,2.909293213650706146e-04,-2.091604387190448919e-03,4.199542492416650651e-04,-7.968412849767343047e-05,8.561106421715862665e-05
-7.630980751315602929e-04,1.848789472175391656e-03,-6.412877895178926198e-04,-2.132062253226403928e-03,1.427033118012160018e-03,7.154920906007476884e-04,5.616457600609413162e-04,-3.272018209871124404e-04,-1.316167774581596540e-04,1.254998617400862647e-03,-3.684328899135784550e-04,7.089461179506025305e-05,9.673616263814234246e-04,-2.293578114066695218e-04,1.094785924545508974e-03,7.963747900526119573e-04,2.051535081718814117e-04,1.113089570384166271e-04,-1.120061711500408173e-03,-4.026910262030074261e-04,-2.704735125768941480e-04,2.192295748717791381e-05,-2.970832581435834015e-04,1.056341808668960925e-03,2.217250610907120338e-04
-5.503579200598567901e-03,-8.168994171967168538e-03,5.922781363744244153e-03,3.731750499597798285e-03,6.478044993528770182e-03,-6.010047807279388435e-03,6.333928274876600602e-03,-4.905453666940906739e-03,-8.314704701998888725e-03,-3.232584356662375567e-03,7.114518509575096759e-03,-7.271657713102682753e-03,-8.109655868686296842e-03,4.927804359885764457e-03,-9.555957262787323492e-03,-7.507559025006433143e-03,5.825850460442841446e-03,5.517865842752960569e-03,4.740010842218160027e-03,-5.170249920855181196e-03,-9.190253510775237000e-03,6.353169972694313640e-03,8.923577235882867087e-04,4.903377666250547350e-03,7.677043416241130687e-03
-2.400699343380413792e-04,1.403917241795542758e-03,1.788903774492309369e-03,-3.936921287883867588e-04,8.022420001176276899e-04,-1.166241761091828819e-03,-5.964790240820732692e-04,-2.838655715397524898e-04,7.277084978969663651e-04,-4.607807163427755058e-04,1.052648766488141398e-03,4.999171340783917315e-04,4.873317975989436787e-04,-1.050457732607716518e-04,3.876033223628045092e-04,-1.013868644134410324e-03,1.085781598369626273e-03,-2.013869434871697409e-03,6.168832101317177265e-04,-6.336151651588166605e-04,1.243965236334307247e-03,-6.847042605619940280e-04,-3.166703772893275084e-04,-1.163175465883537277e-03,-6.967171008137417040e-05
-6.069433138264472300e-04,-4.808853047046367539e-04,1.775958488709754530e-03,8.340505014159219381e-04,1.091551068034200085e-03,-2.879543803965624576e-03,1.937049868437840236e-03,-2.305999228307900779e-03,-7.179403544132158168e-04,1.500966636944566326e-04,2.240503516493195894e-03,-1.433109184659084583e-03,-2.137456097934608591e-03,9.401296008261431211e-04,-9.479524982534334732e-04,-8.062245011312077362e-04,1.897542894182889951e-03,6.460040357274019840e-04,4.660441256775543946e-04,-4.320693559975125422e-04,-5.611502962496364277e-04,6.151014467253641165e-04,-1.680135146643171266e-03,1.927685094435311946e-03,1.545753449591397936e-03
